{"path": {"full_path_GT": "/LOD_Brain/data/GT/"}, "data": {"X_val.shape": [256, 256, 256], "data_dims": [256, 256, 256], "num_segmask_labels": 7, "len(X_train_paths)": 1049, "len(X_val_paths)": 121, "len(X_test_paths)": 24999, "class_weights": {"0": 0.15385526366818414, "1": 4.111196169434874, "2": 47.0568225483899, "3": 6.475117028794352, "4": 133.59783405000798, "5": 15.47655116365525, "6": 106.8449154269411}}, "_runtime": 270196, "_timestamp": 1653236524, "_step": 405, "graph": {"_type": "graph-file", "path": "media/graph/graph_summary_05de502d.graph.json", "sha256": "05de502d8f720c6a7fb36ed0c6f9fc6f7ae86d9cc2d79b84ee3392f6dc82cf14", "size": 3231}, "loss": 0.07601570338010788, "tversky_metric": 0.9844908118247986, "jaccard_metric": 0.9694826006889343, "compute_per_channel_dice": 0.9301068782806396, "parameters/conv3d.weights": {"_type": "histogram", "values": [1, 1, 1, 1, 2, 3, 6, 2, 5, 11, 9, 8, 5, 10, 19, 11, 13, 16, 6, 29, 23, 17, 23, 22, 20, 28, 23, 23, 21, 24, 20, 17, 25, 27, 26, 22, 34, 36, 30, 31, 25, 21, 15, 21, 23, 17, 17, 16, 7, 12, 5, 8, 7, 8, 5, 2, 2, 0, 0, 0, 0, 0, 1, 1], "bins": [-0.20912013947963715, -0.20247890055179596, -0.19583766162395477, -0.1891964226961136, -0.1825551688671112, -0.17591392993927002, -0.16927269101142883, -0.16263145208358765, -0.15599021315574646, -0.14934897422790527, -0.1427077353000641, -0.1360664963722229, -0.1294252574443817, -0.12278401106595993, -0.11614276468753815, -0.10950152575969696, -0.10286028683185577, -0.09621904790401459, -0.0895778089761734, -0.08293656259775162, -0.07629532366991043, -0.06965408474206924, -0.06301283836364746, -0.056371599435806274, -0.04973036050796509, -0.0430891215801239, -0.036447878926992416, -0.02980663813650608, -0.023165397346019745, -0.01652415655553341, -0.009882915765047073, -0.0032416749745607376, 0.003399565815925598, 0.010040806606411934, 0.01668204739689827, 0.023323288187384605, 0.02996452897787094, 0.03660576790571213, 0.04324701055884361, 0.0498882532119751, 0.056529492139816284, 0.06317073106765747, 0.06981196999549866, 0.07645321637392044, 0.08309445530176163, 0.08973569422960281, 0.0963769406080246, 0.10301817953586578, 0.10965941846370697, 0.11630065739154816, 0.12294189631938934, 0.12958313524723053, 0.1362243890762329, 0.1428656280040741, 0.14950686693191528, 0.15614810585975647, 0.16278934478759766, 0.16943058371543884, 0.17607182264328003, 0.18271306157112122, 0.1893543004989624, 0.19599555432796478, 0.20263679325580597, 0.20927803218364716, 0.21591927111148834]}, "parameters/conv3d.bias": {"_type": "histogram", "values": [2, 0, 0, 0, 0, 0, 0, 0, 0, 0, 0, 1, 0, 1, 0, 0, 0, 0, 0, 1, 0, 0, 1, 0, 0, 0, 0, 0, 0, 0, 1, 0, 0, 0, 0, 1, 1, 2, 2, 2, 0, 3, 1, 6, 2, 1, 1, 0, 0, 0, 0, 1, 0, 0, 0, 0, 0, 0, 1, 0, 0, 0, 0, 1], "bins": [-0.23479017615318298, -0.22977805137634277, -0.22476591169834137, -0.21975378692150116, -0.21474166214466095, -0.20972952246665955, -0.20471739768981934, -0.19970527291297913, -0.19469313323497772, -0.1896810084581375, -0.1846688836812973, -0.1796567440032959, -0.1746446192264557, -0.16963249444961548, -0.16462035477161407, -0.15960822999477386, -0.15459609031677246, -0.14958396553993225, -0.14457184076309204, -0.13955970108509064, -0.13454757630825043, -0.12953545153141022, -0.12452331930398941, -0.1195111870765686, -0.1144990622997284, -0.10948693007230759, -0.10447479784488678, -0.09946266561746597, -0.09445054084062576, -0.08943840861320496, -0.08442627638578415, -0.07941415160894394, -0.07440201938152313, -0.06938988715410233, -0.06437776237726212, -0.05936563014984131, -0.0543534979224205, -0.04934136942028999, -0.044329240918159485, -0.03931710869073868, -0.03430498018860817, -0.029292849823832512, -0.024280719459056854, -0.019268590956926346, -0.014256460592150688, -0.00924433022737503, -0.0042322007939219475, 0.0007799291051924229, 0.005792059004306793, 0.01080418936908245, 0.01581631973385811, 0.020828448235988617, 0.025840578600764275, 0.030852708965539932, 0.03586483746767044, 0.04087696969509125, 0.045889098197221756, 0.050901226699352264, 0.05591335892677307, 0.06092548742890358, 0.06593761593103409, 0.0709497481584549, 0.0759618803858757, 0.08097400516271591, 0.08598613739013672]}, "parameters/conv3d_7.weights": {"_type": "histogram", "values": [3, 3, 7, 13, 11, 6, 15, 23, 19, 25, 31, 39, 45, 72, 91, 133, 172, 202, 258, 392, 496, 742, 1271, 1947, 17089, 1465, 874, 535, 373, 259, 226, 163, 118, 75, 57, 47, 51, 44, 33, 23, 24, 24, 22, 19, 15, 19, 20, 14, 10, 8, 3, 4, 5, 3, 1, 2, 3, 2, 0, 0, 1, 0, 0, 1], "bins": [-0.07751510292291641, -0.07433068752288818, -0.07114627957344055, -0.06796186417341232, -0.0647774487733841, -0.061593037098646164, -0.058408621698617935, -0.055224210023880005, -0.052039794623851776, -0.048855382949113846, -0.04567096754908562, -0.04248655587434769, -0.03930214047431946, -0.03611772879958153, -0.0329333133995533, -0.02974890172481537, -0.02656448818743229, -0.02338007465004921, -0.02019566111266613, -0.01701124757528305, -0.013826834037899971, -0.010642421431839466, -0.0074580078944563866, -0.004273594357073307, -0.0010891808196902275, 0.002095232717692852, 0.0052796462550759315, 0.008464059792459011, 0.011648472398519516, 0.014832885935902596, 0.018017299473285675, 0.021201713010668755, 0.024386126548051834, 0.027570540085434914, 0.030754953622817993, 0.03393936529755592, 0.03712378069758415, 0.04030819237232208, 0.04349260777235031, 0.04667701944708824, 0.04986143484711647, 0.0530458465218544, 0.05623026192188263, 0.05941467359662056, 0.06259908527135849, 0.06578350067138672, 0.06896791607141495, 0.07215233147144318, 0.07533673942089081, 0.07852115482091904, 0.08170557022094727, 0.0848899781703949, 0.08807439357042313, 0.09125880897045135, 0.09444322437047958, 0.09762763231992722, 0.10081204771995544, 0.10399646311998367, 0.1071808785200119, 0.11036528646945953, 0.11354970186948776, 0.11673411726951599, 0.11991853266954422, 0.12310294061899185, 0.12628735601902008]}, "parameters/conv3d_7.bias": {"_type": "histogram", "values": [1, 0, 0, 2, 0, 1, 0, 0, 0, 0, 0, 0, 1, 0, 0, 2, 1, 0, 1, 1, 0, 1, 1, 0, 0, 0, 1, 1, 0, 0, 0, 1, 1, 1, 4, 0, 0, 2, 0, 1, 2, 0, 0, 0, 1, 0, 1, 1, 0, 0, 0, 1, 0, 0, 1, 0, 0, 0, 0, 0, 0, 0, 0, 1], "bins": [-0.3880448043346405, -0.37680187821388245, -0.3655589818954468, -0.3543160557746887, -0.34307312965393066, -0.331830233335495, -0.32058730721473694, -0.3093443810939789, -0.2981014847755432, -0.28685855865478516, -0.2756156325340271, -0.26437273621559143, -0.2531298100948334, -0.2418868988752365, -0.23064397275447845, -0.2194010615348816, -0.20815813541412354, -0.19691522419452667, -0.1856723129749298, -0.17442938685417175, -0.1631864756345749, -0.15194356441497803, -0.14070063829421997, -0.1294577270746231, -0.11821481585502625, -0.10697189718484879, -0.09572897851467133, -0.08448605984449387, -0.073243148624897, -0.06200022995471954, -0.05075731500983238, -0.03951439633965492, -0.02827148139476776, -0.01702856458723545, -0.005785648711025715, 0.005457267630845308, 0.01670018397271633, 0.027943100780248642, 0.0391860157251358, 0.05042893439531326, 0.061671849340200424, 0.07291476428508759, 0.08415768295526505, 0.0954006016254425, 0.10664351284503937, 0.11788643151521683, 0.1291293501853943, 0.14037226140499115, 0.151615172624588, 0.16285809874534607, 0.17410100996494293, 0.185343936085701, 0.19658684730529785, 0.20782975852489471, 0.21907268464565277, 0.23031559586524963, 0.2415585070848465, 0.25280141830444336, 0.2640443444252014, 0.2752872705459595, 0.28653016686439514, 0.2977730929851532, 0.30901601910591125, 0.3202589154243469, 0.331501841545105]}, "parameters/main_output.weights": {"_type": "histogram", "values": [1, 0, 0, 0, 1, 0, 0, 0, 0, 0, 0, 1, 1, 1, 0, 3, 1, 1, 1, 1, 5, 3, 4, 1, 1, 4, 2, 2, 2, 4, 3, 110, 15, 9, 4, 4, 4, 0, 5, 4, 3, 4, 3, 2, 1, 2, 0, 1, 0, 1, 1, 2, 1, 1, 1, 0, 1, 1, 0, 0, 0, 0, 0, 1], "bins": [-0.5020936727523804, -0.4862474799156189, -0.4704012870788574, -0.45455512404441833, -0.43870893120765686, -0.4228627383708954, -0.4070165455341339, -0.39117035269737244, -0.37532418966293335, -0.3594779968261719, -0.3436318039894104, -0.3277856111526489, -0.31193941831588745, -0.296093225479126, -0.2802470624446869, -0.2644008696079254, -0.24855467677116394, -0.23270848393440247, -0.21686230599880219, -0.2010161131620407, -0.18516993522644043, -0.16932374238967896, -0.15347754955291748, -0.1376313716173172, -0.12178517878055573, -0.10593899339437485, -0.09009280800819397, -0.0742466151714325, -0.05840042978525162, -0.04255424439907074, -0.026708055287599564, -0.010861868038773537, 0.00498431921005249, 0.020830506458878517, 0.036676693707704544, 0.05252288281917572, 0.0683690682053566, 0.08421525359153748, 0.10006144642829895, 0.11590763181447983, 0.1317538172006607, 0.14760001003742218, 0.16344618797302246, 0.17929238080978394, 0.1951385736465454, 0.2109847515821457, 0.22683094441890717, 0.24267712235450745, 0.2585233151912689, 0.2743695080280304, 0.29021570086479187, 0.30606186389923096, 0.32190805673599243, 0.3377542495727539, 0.3536004424095154, 0.36944663524627686, 0.38529282808303833, 0.4011389911174774, 0.4169851839542389, 0.43283137679100037, 0.44867756962776184, 0.4645237624645233, 0.4803699254989624, 0.4962161183357239, 0.5120623111724854]}, "parameters/main_output.bias": {"_type": "histogram", "values": [1, 0, 0, 0, 0, 0, 0, 0, 0, 0, 0, 1, 0, 0, 0, 0, 0, 0, 0, 0, 1, 0, 0, 0, 0, 0, 0, 0, 0, 0, 0, 0, 0, 0, 0, 0, 0, 0, 0, 0, 0, 0, 0, 2, 0, 0, 0, 0, 0, 0, 0, 0, 0, 0, 0, 0, 0, 0, 1, 0, 0, 0, 0, 1], "bins": [-0.41245827078819275, -0.40135446190834045, -0.39025068283081055, -0.37914687395095825, -0.36804309487342834, -0.35693928599357605, -0.34583550691604614, -0.33473169803619385, -0.32362788915634155, -0.31252411007881165, -0.30142030119895935, -0.29031652212142944, -0.27921271324157715, -0.26810893416404724, -0.25700512528419495, -0.24590133130550385, -0.23479753732681274, -0.22369374334812164, -0.21258994936943054, -0.20148615539073944, -0.19038236141204834, -0.17927855253219604, -0.16817475855350494, -0.15707096457481384, -0.14596717059612274, -0.13486337661743164, -0.12375958263874054, -0.11265578120946884, -0.10155198723077774, -0.09044819325208664, -0.07934439182281494, -0.06824059784412384, -0.05713680386543274, -0.04603300988674164, -0.03492921218276024, -0.02382541634142399, -0.012721620500087738, -0.0016178246587514877, 0.009485971182584763, 0.020589767023921013, 0.03169356286525726, 0.042797356843948364, 0.053901154547929764, 0.06500495225191116, 0.07610874623060226, 0.08721254020929337, 0.09831634163856506, 0.10942013561725616, 0.12052392959594727, 0.13162772357463837, 0.14273151755332947, 0.15383531153202057, 0.16493910551071167, 0.17604291439056396, 0.18714670836925507, 0.19825050234794617, 0.20935429632663727, 0.22045809030532837, 0.23156188428401947, 0.24266567826271057, 0.25376948714256287, 0.2648732662200928, 0.27597707509994507, 0.287080854177475, 0.29818466305732727]}, "epoch": 49, "val_loss": 0.05286877229809761, "val_tversky_metric": 0.9884249567985535, "val_jaccard_metric": 0.9771180152893066, "val_compute_per_channel_dice": 0.9532449841499329, "best_val_loss": 0.05242940038442612, "best_epoch": 48, "predictions": {"_type": "video-file", "path": "media/videos/predictions_399_72be5de9.gif", "sha256": "72be5de98ba55be1103ef410bd2fab148c8f0bce8f94334576fef9a306da9ad3", "size": 1140096, "width": 256, "height": 256}, "gt": {"_type": "video-file", "path": "media/videos/gt_400_ba11972c.gif", "sha256": "ba11972c25c5476bd4450f31bba7e9e9e2106b36d7ae19d6be5d793757f99b71", "size": 1140141, "width": 256, "height": 256}, "parameters/conv3d_8.weights": {"_type": "histogram", "values": [1, 0, 0, 2, 1, 1, 6, 2, 3, 2, 1, 4, 4, 5, 8, 11, 2, 11, 11, 16, 13, 19, 20, 22, 16, 29, 27, 25, 26, 18, 27, 31, 19, 24, 30, 20, 24, 27, 29, 22, 25, 29, 28, 23, 28, 30, 21, 14, 17, 13, 16, 13, 13, 3, 12, 3, 4, 2, 4, 3, 1, 1, 0, 2], "bins": [-0.23062780499458313, -0.22396564483642578, -0.21730349957942963, -0.21064133942127228, -0.20397919416427612, -0.19731703400611877, -0.19065487384796143, -0.18399272859096527, -0.17733056843280792, -0.17066842317581177, -0.16400626301765442, -0.15734410285949707, -0.15068195760250092, -0.14401979744434357, -0.13735763728618622, -0.13069549202919006, -0.12403333187103271, -0.11737117916345596, -0.11070902645587921, -0.10404687374830246, -0.09738472104072571, -0.09072256088256836, -0.08406040817499161, -0.07739825546741486, -0.0707361027598381, -0.06407395005226135, -0.0574117936193943, -0.05074963718652725, -0.0440874844789505, -0.03742532804608345, -0.0307631753385067, -0.024101020768284798, -0.017438866198062897, -0.010776711627840996, -0.004114557523280382, 0.002547596814110875, 0.009209751151502132, 0.01587190479040146, 0.02253405936062336, 0.02919621393084526, 0.03585837036371231, 0.04252052307128906, 0.049182675778865814, 0.055844832211732864, 0.06250698864459991, 0.06916914135217667, 0.07583129405975342, 0.08249344676733017, 0.08915559947490692, 0.09581775963306427, 0.10247991234064102, 0.10914206504821777, 0.11580421775579453, 0.12246637791395187, 0.12912853062152863, 0.13579069077968597, 0.14245283603668213, 0.14911499619483948, 0.15577714145183563, 0.16243930160999298, 0.16910146176815033, 0.17576360702514648, 0.18242576718330383, 0.1890879124403, 0.19575007259845734]}, "parameters/conv3d_8.bias": {"_type": "histogram", "values": [1, 2, 0, 0, 0, 0, 0, 0, 0, 0, 0, 2, 0, 0, 0, 2, 0, 1, 1, 0, 2, 0, 0, 3, 1, 1, 1, 4, 5, 3, 0, 2, 0, 0, 0, 0, 0, 0, 0, 0, 0, 0, 0, 0, 0, 0, 0, 0, 0, 0, 0, 0, 0, 0, 0, 0, 0, 0, 0, 0, 0, 0, 0, 1], "bins": [-0.06366751343011856, -0.061458032578229904, -0.05924855172634125, -0.05703906714916229, -0.054829586297273636, -0.05262010544538498, -0.050410620868206024, -0.04820114001631737, -0.04599165916442871, -0.043782178312540054, -0.0415726974606514, -0.03936321288347244, -0.037153732031583786, -0.03494425117969513, -0.032734766602516174, -0.030525285750627518, -0.02831580489873886, -0.026106324046850204, -0.0238968413323164, -0.021687358617782593, -0.019477877765893936, -0.01726839691400528, -0.015058914199471474, -0.012849432416260242, -0.010639950633049011, -0.00843046884983778, -0.006220987066626549, -0.0040115052834153175, -0.0018020235002040863, 0.00040745828300714493, 0.002616940066218376, 0.004826421849429607, 0.007035903632640839, 0.00924538541585207, 0.011454867199063301, 0.013664348982274532, 0.015873830765485764, 0.01808331161737442, 0.020292794331908226, 0.022502277046442032, 0.02471175789833069, 0.026921238750219345, 0.02913072146475315, 0.03134020417928696, 0.03354968503117561, 0.03575916588306427, 0.037968650460243225, 0.04017813131213188, 0.04238761216402054, 0.044597093015909195, 0.04680657386779785, 0.04901605844497681, 0.05122553929686546, 0.05343502014875412, 0.055644504725933075, 0.05785398557782173, 0.06006346642971039, 0.062272947281599045, 0.0644824281334877, 0.06669191271066666, 0.06890138983726501, 0.07111087441444397, 0.07332035899162292, 0.07552983611822128, 0.07773932069540024]}, "parameters/conv3d_12.weights": {"_type": "histogram", "values": [1, 0, 1, 0, 2, 4, 2, 6, 5, 7, 13, 20, 18, 20, 18, 34, 44, 59, 67, 77, 118, 170, 185, 227, 301, 431, 516, 636, 900, 1017, 1334, 16036, 1173, 946, 748, 540, 403, 312, 234, 193, 180, 136, 91, 107, 65, 48, 35, 40, 25, 21, 23, 15, 10, 10, 5, 8, 1, 2, 0, 4, 0, 3, 0, 1], "bins": [-0.10495852679014206, -0.10161609202623367, -0.09827364981174469, -0.0949312150478363, -0.09158878028392792, -0.08824634552001953, -0.08490390330553055, -0.08156146854162216, -0.07821903377771378, -0.07487659901380539, -0.0715341567993164, -0.06819172203540802, -0.06484928727149963, -0.06150684878230095, -0.05816441401839256, -0.05482197552919388, -0.05147954076528549, -0.04813710227608681, -0.04479466378688812, -0.041452229022979736, -0.03810979053378105, -0.034767355769872665, -0.03142491728067398, -0.028082482516765594, -0.02474004402756691, -0.021397607401013374, -0.01805517077445984, -0.014712735079228878, -0.011370297521352768, -0.008027860894799232, -0.004685424268245697, -0.0013429877581074834, 0.001999448984861374, 0.005341885611414909, 0.008684322237968445, 0.01202675886452198, 0.015369195491075516, 0.01871163211762905, 0.022054068744182587, 0.025396505370736122, 0.028738941997289658, 0.03208138048648834, 0.03542381525039673, 0.03876625373959541, 0.0421086885035038, 0.045451126992702484, 0.04879356175661087, 0.052136000245809555, 0.05547843873500824, 0.058820873498916626, 0.06216331198811531, 0.065505750477314, 0.06884818524122238, 0.07219062000513077, 0.07553305476903915, 0.07887549698352814, 0.08221793174743652, 0.08556036651134491, 0.0889028012752533, 0.09224524348974228, 0.09558767825365067, 0.09893011301755905, 0.10227254778146744, 0.10561498999595642, 0.10895742475986481]}, "parameters/conv3d_12.bias": {"_type": "histogram", "values": [1, 0, 0, 0, 1, 0, 0, 0, 0, 0, 0, 0, 1, 0, 1, 0, 1, 0, 0, 0, 2, 1, 0, 2, 2, 1, 1, 0, 2, 0, 2, 1, 0, 1, 0, 2, 1, 1, 1, 0, 1, 1, 1, 0, 0, 0, 1, 0, 0, 0, 0, 0, 0, 0, 0, 0, 1, 0, 0, 0, 0, 0, 1, 1], "bins": [-0.14304915070533752, -0.13838736712932587, -0.1337255984544754, -0.12906381487846375, -0.12440203130245209, -0.11974025517702103, -0.11507847905158997, -0.11041669547557831, -0.10575491935014725, -0.10109314322471619, -0.09643135964870453, -0.09176958352327347, -0.08710780739784241, -0.08244602382183075, -0.07778424769639969, -0.07312246412038803, -0.06846068799495697, -0.06379891186952591, -0.05913712829351425, -0.05447535216808319, -0.04981357231736183, -0.04515179246664047, -0.04049001634120941, -0.03582823649048805, -0.031166456639766693, -0.026504676789045334, -0.021842898800969124, -0.017181120812892914, -0.012519340962171555, -0.00785756204277277, -0.0031957831233739853, 0.0014659957960247993, 0.006127774715423584, 0.010789553634822369, 0.015451332554221153, 0.020113110542297363, 0.024774890393018723, 0.029436670243740082, 0.03409844636917114, 0.0387602262198925, 0.04342200607061386, 0.04808378592133522, 0.05274556577205658, 0.05740734189748764, 0.062069121748209, 0.06673090159893036, 0.07139267772436142, 0.07605446130037308, 0.08071623742580414, 0.0853780135512352, 0.09003979712724686, 0.09470157325267792, 0.09936335682868958, 0.10402513295412064, 0.1086869090795517, 0.11334869265556335, 0.11801046878099442, 0.12267224490642548, 0.12733402848243713, 0.1319958120584488, 0.13665758073329926, 0.1413193643093109, 0.14598114788532257, 0.15064291656017303, 0.1553047001361847]}, "model_count_params": 337719, "validation results - intraInter": {"_type": "image-file", "path": "media/images/validation results - intraInter_402_8f0fc9df.png", "sha256": "8f0fc9df010d7dfcb1782b829479b661534faf02fca0883f72824681906a501e", "size": 25974, "format": "png", "width": 640, "height": 480}, "validation results - manual": {"_type": "image-file", "path": "media/images/validation results - manual_403_75e5333a.png", "sha256": "75e5333a035a20fda4ebb91a83df1a42fdca5c14db316b05725fdbb5d9abdfec", "size": 27795, "format": "png", "width": 640, "height": 480}, "validation results - metric": {"_type": "image-file", "path": "media/images/validation results - metric_404_687727de.png", "sha256": "687727dea0b057aba11e374acadae0c91e240c883f5855e3e666ed6420a80689", "size": 36886, "format": "png", "width": 640, "height": 480}, "test_loss": 0.0571582093834877, "test_tversky_metric": 0.9882222414016724, "test_jaccard_metric": 0.9767398834228516, "test_compute_per_channel_dice": 0.9489743113517761, "test_loss_intra": NaN, "test_loss_inter": NaN, "test_loss_manual": NaN, "test_loss_semi_manual": NaN, "test_loss_auto": NaN, "test_tversky_metric_intra": 0.9887009937684614, "test_tversky_metric_inter": 0.986770757039388, "test_tversky_metric_manual": 0.9737622439861298, "test_tversky_metric_semi_manual": 0.9888609803241232, "test_tversky_metric_auto": 0.9886233672289781, "test_jaccard_metric_intra": 0.9776620576669882, "test_jaccard_metric_inter": 0.9739420394102732, "test_jaccard_metric_manual": 0.948873981833458, "test_jaccard_metric_semi_manual": 0.9779724906320157, "test_jaccard_metric_auto": 0.9775109568112333, "test_compute_per_channel_dice_intra": 0.9522457050753164, "test_compute_per_channel_dice_inter": 0.9390508333841959, "test_compute_per_channel_dice_manual": 0.8538226634263992, "test_compute_per_channel_dice_semi_manual": 0.9519835192224254, "test_compute_per_channel_dice_auto": 0.952385234161162}